svm_type one_class
kernel_type rbf
gamma 7.773308956688881
nr_class 2
total_sv 8
rho 0.009400091218908509
SV
0.0021599293755832786 0:0.28801 1:0.75666
0.0010971638224336077 0:0.076023 1:0.57502
0.00828265326076911 0:1.0 1:0.0033682
0.0045420381786674124 0:0.024854 1:0.44673
0.007148701527706942 0:0.005848 1:0.014655
0.007046181212796134 0:0.52047 1:0.0
0.006964616786102847 0:0.3114 1:1.0
0.0020587158359406704 0:0.27632 1:0.44638
